digraph Tree {
node [shape=box, style="filled, rounded", color="black", fontname=helvetica] ;
edge [fontname=helvetica] ;
0 [label=<Light &le; 362.75<br/>gini = 0.329<br/>samples = 4885<br/>value = [3872, 1013]<br/>class = not occupied>, fillcolor="#e58139bc"] ;
1 [label=<Humidity &le; 37.621<br/>gini = 0.003<br/>samples = 3829<br/>value = [3824, 5]<br/>class = not occupied>, fillcolor="#e58139ff"] ;
0 -> 1 [labeldistance=2.5, labelangle=45, headlabel="True"] ;
2 [label=<Light &le; 355.5<br/>gini = 0.002<br/>samples = 3826<br/>value = [3822, 4]<br/>class = not occupied>, fillcolor="#e58139ff"] ;
1 -> 2 ;
3 [label=<Light &le; 289.25<br/>gini = 0.002<br/>samples = 3820<br/>value = [3817, 3]<br/>class = not occupied>, fillcolor="#e58139ff"] ;
2 -> 3 ;
4 [label=<CO2 &le; 1244.667<br/>gini = 0.001<br/>samples = 3724<br/>value = [3723, 1]<br/>class = not occupied>, fillcolor="#e58139ff"] ;
3 -> 4 ;
5 [label=<gini = 0.0<br/>samples = 3683<br/>value = [3683, 0]<br/>class = not occupied>, fillcolor="#e58139ff"] ;
4 -> 5 ;
6 [label=<Humidity &le; 36.108<br/>gini = 0.048<br/>samples = 41<br/>value = [40, 1]<br/>class = not occupied>, fillcolor="#e58139f9"] ;
4 -> 6 ;
7 [label=<gini = 0.444<br/>samples = 3<br/>value = [2, 1]<br/>class = not occupied>, fillcolor="#e581397f"] ;
6 -> 7 ;
8 [label=<gini = 0.0<br/>samples = 38<br/>value = [38, 0]<br/>class = not occupied>, fillcolor="#e58139ff"] ;
6 -> 8 ;
9 [label=<CO2 &le; 462.75<br/>gini = 0.041<br/>samples = 96<br/>value = [94, 2]<br/>class = not occupied>, fillcolor="#e58139fa"] ;
3 -> 9 ;
10 [label=<gini = 0.0<br/>samples = 93<br/>value = [93, 0]<br/>class = not occupied>, fillcolor="#e58139ff"] ;
9 -> 10 ;
11 [label=<gini = 0.444<br/>samples = 3<br/>value = [1, 2]<br/>class = occupied>, fillcolor="#399de57f"] ;
9 -> 11 ;
12 [label=<CO2 &le; 456.375<br/>gini = 0.278<br/>samples = 6<br/>value = [5, 1]<br/>class = not occupied>, fillcolor="#e58139cc"] ;
2 -> 12 ;
13 [label=<gini = 0.0<br/>samples = 3<br/>value = [3, 0]<br/>class = not occupied>, fillcolor="#e58139ff"] ;
12 -> 13 ;
14 [label=<gini = 0.444<br/>samples = 3<br/>value = [2, 1]<br/>class = not occupied>, fillcolor="#e581397f"] ;
12 -> 14 ;
15 [label=<gini = 0.444<br/>samples = 3<br/>value = [2, 1]<br/>class = not occupied>, fillcolor="#e581397f"] ;
1 -> 15 ;
16 [label=<CO2 &le; 454.833<br/>gini = 0.087<br/>samples = 1056<br/>value = [48, 1008]<br/>class = occupied>, fillcolor="#399de5f3"] ;
0 -> 16 [labeldistance=2.5, labelangle=-45, headlabel="False"] ;
17 [label=<gini = 0.0<br/>samples = 6<br/>value = [6, 0]<br/>class = not occupied>, fillcolor="#e58139ff"] ;
16 -> 17 ;
18 [label=<Temperature &le; 22.226<br/>gini = 0.077<br/>samples = 1050<br/>value = [42, 1008]<br/>class = occupied>, fillcolor="#399de5f4"] ;
16 -> 18 ;
19 [label=<CO2 &le; 483.417<br/>gini = 0.02<br/>samples = 877<br/>value = [9, 868]<br/>class = occupied>, fillcolor="#399de5fc"] ;
18 -> 19 ;
20 [label=<CO2 &le; 471.583<br/>gini = 0.426<br/>samples = 13<br/>value = [4, 9]<br/>class = occupied>, fillcolor="#399de58e"] ;
19 -> 20 ;
21 [label=<CO2 &le; 459.208<br/>gini = 0.198<br/>samples = 9<br/>value = [1, 8]<br/>class = occupied>, fillcolor="#399de5df"] ;
20 -> 21 ;
22 [label=<gini = 0.444<br/>samples = 3<br/>value = [1, 2]<br/>class = occupied>, fillcolor="#399de57f"] ;
21 -> 22 ;
23 [label=<gini = 0.0<br/>samples = 6<br/>value = [0, 6]<br/>class = occupied>, fillcolor="#399de5ff"] ;
21 -> 23 ;
24 [label=<gini = 0.375<br/>samples = 4<br/>value = [3, 1]<br/>class = not occupied>, fillcolor="#e58139aa"] ;
20 -> 24 ;
25 [label=<Humidity &le; 19.361<br/>gini = 0.012<br/>samples = 864<br/>value = [5, 859]<br/>class = occupied>, fillcolor="#399de5fe"] ;
19 -> 25 ;
26 [label=<CO2 &le; 649.0<br/>gini = 0.172<br/>samples = 21<br/>value = [2, 19]<br/>class = occupied>, fillcolor="#399de5e4"] ;
25 -> 26 ;
27 [label=<gini = 0.0<br/>samples = 15<br/>value = [0, 15]<br/>class = occupied>, fillcolor="#399de5ff"] ;
26 -> 27 ;
28 [label=<gini = 0.444<br/>samples = 6<br/>value = [2, 4]<br/>class = occupied>, fillcolor="#399de57f"] ;
26 -> 28 ;
29 [label=<Humidity &le; 20.529<br/>gini = 0.007<br/>samples = 843<br/>value = [3, 840]<br/>class = occupied>, fillcolor="#399de5fe"] ;
25 -> 29 ;
30 [label=<gini = 0.05<br/>samples = 116<br/>value = [3, 113]<br/>class = occupied>, fillcolor="#399de5f8"] ;
29 -> 30 ;
31 [label=<gini = 0.0<br/>samples = 727<br/>value = [0, 727]<br/>class = occupied>, fillcolor="#399de5ff"] ;
29 -> 31 ;
32 [label=<CO2 &le; 904.875<br/>gini = 0.309<br/>samples = 173<br/>value = [33, 140]<br/>class = occupied>, fillcolor="#399de5c3"] ;
18 -> 32 ;
33 [label=<Temperature &le; 22.695<br/>gini = 0.43<br/>samples = 32<br/>value = [22, 10]<br/>class = not occupied>, fillcolor="#e581398b"] ;
32 -> 33 ;
34 [label=<CO2 &le; 809.75<br/>gini = 0.153<br/>samples = 24<br/>value = [22, 2]<br/>class = not occupied>, fillcolor="#e58139e8"] ;
33 -> 34 ;
35 [label=<gini = 0.346<br/>samples = 9<br/>value = [7, 2]<br/>class = not occupied>, fillcolor="#e58139b6"] ;
34 -> 35 ;
36 [label=<gini = 0.0<br/>samples = 15<br/>value = [15, 0]<br/>class = not occupied>, fillcolor="#e58139ff"] ;
34 -> 36 ;
37 [label=<gini = 0.0<br/>samples = 8<br/>value = [0, 8]<br/>class = occupied>, fillcolor="#399de5ff"] ;
33 -> 37 ;
38 [label=<Temperature &le; 22.642<br/>gini = 0.144<br/>samples = 141<br/>value = [11, 130]<br/>class = occupied>, fillcolor="#399de5e9"] ;
32 -> 38 ;
39 [label=<gini = 0.0<br/>samples = 124<br/>value = [0, 124]<br/>class = occupied>, fillcolor="#399de5ff"] ;
38 -> 39 ;
40 [label=<CO2 &le; 1108.0<br/>gini = 0.457<br/>samples = 17<br/>value = [11, 6]<br/>class = not occupied>, fillcolor="#e5813974"] ;
38 -> 40 ;
41 [label=<gini = 0.355<br/>samples = 13<br/>value = [10, 3]<br/>class = not occupied>, fillcolor="#e58139b3"] ;
40 -> 41 ;
42 [label=<gini = 0.375<br/>samples = 4<br/>value = [1, 3]<br/>class = occupied>, fillcolor="#399de5aa"] ;
40 -> 42 ;
}