digraph Tree {
node [shape=box, style="filled, rounded", color="black", fontname=helvetica] ;
edge [fontname=helvetica] ;
0 [label=<Light &le; 362.75<br/>gini = 0.331<br/>samples = 6514<br/>value = [5150, 1364]<br/>class = not occupied>, fillcolor="#e58139bb"] ;
1 [label=<CO2 &le; 1695.5<br/>gini = 0.002<br/>samples = 5081<br/>value = [5076, 5]<br/>class = not occupied>, fillcolor="#e58139ff"] ;
0 -> 1 [labeldistance=2.5, labelangle=45, headlabel="True"] ;
2 [label=<Light &le; 353.625<br/>gini = 0.002<br/>samples = 5071<br/>value = [5067, 4]<br/>class = not occupied>, fillcolor="#e58139ff"] ;
1 -> 2 ;
3 [label=<Light &le; 289.25<br/>gini = 0.001<br/>samples = 5060<br/>value = [5057, 3]<br/>class = not occupied>, fillcolor="#e58139ff"] ;
2 -> 3 ;
4 [label=<gini = 0.0<br/>samples = 4944<br/>value = [4943, 1]<br/>class = not occupied>, fillcolor="#e58139ff"] ;
3 -> 4 ;
5 [label=<gini = 0.034<br/>samples = 116<br/>value = [114, 2]<br/>class = not occupied>, fillcolor="#e58139fb"] ;
3 -> 5 ;
6 [label=<gini = 0.165<br/>samples = 11<br/>value = [10, 1]<br/>class = not occupied>, fillcolor="#e58139e6"] ;
2 -> 6 ;
7 [label=<gini = 0.18<br/>samples = 10<br/>value = [9, 1]<br/>class = not occupied>, fillcolor="#e58139e3"] ;
1 -> 7 ;
8 [label=<Temperature &le; 22.226<br/>gini = 0.098<br/>samples = 1433<br/>value = [74, 1359]<br/>class = occupied>, fillcolor="#399de5f1"] ;
0 -> 8 [labeldistance=2.5, labelangle=-45, headlabel="False"] ;
9 [label=<CO2 &le; 487.0<br/>gini = 0.039<br/>samples = 1197<br/>value = [24, 1173]<br/>class = occupied>, fillcolor="#399de5fa"] ;
8 -> 9 ;
10 [label=<CO2 &le; 459.208<br/>gini = 0.497<br/>samples = 28<br/>value = [15, 13]<br/>class = not occupied>, fillcolor="#e5813922"] ;
9 -> 10 ;
11 [label=<gini = 0.32<br/>samples = 10<br/>value = [8, 2]<br/>class = not occupied>, fillcolor="#e58139bf"] ;
10 -> 11 ;
12 [label=<gini = 0.475<br/>samples = 18<br/>value = [7, 11]<br/>class = occupied>, fillcolor="#399de55d"] ;
10 -> 12 ;
13 [label=<Humidity &le; 19.361<br/>gini = 0.015<br/>samples = 1169<br/>value = [9, 1160]<br/>class = occupied>, fillcolor="#399de5fd"] ;
9 -> 13 ;
14 [label=<gini = 0.18<br/>samples = 30<br/>value = [3, 27]<br/>class = occupied>, fillcolor="#399de5e3"] ;
13 -> 14 ;
15 [label=<gini = 0.01<br/>samples = 1139<br/>value = [6, 1133]<br/>class = occupied>, fillcolor="#399de5fe"] ;
13 -> 15 ;
16 [label=<CO2 &le; 904.875<br/>gini = 0.334<br/>samples = 236<br/>value = [50, 186]<br/>class = occupied>, fillcolor="#399de5ba"] ;
8 -> 16 ;
17 [label=<Light &le; 441.0<br/>gini = 0.44<br/>samples = 49<br/>value = [33, 16]<br/>class = not occupied>, fillcolor="#e5813983"] ;
16 -> 17 ;
18 [label=<gini = 0.0<br/>samples = 14<br/>value = [0, 14]<br/>class = occupied>, fillcolor="#399de5ff"] ;
17 -> 18 ;
19 [label=<gini = 0.108<br/>samples = 35<br/>value = [33, 2]<br/>class = not occupied>, fillcolor="#e58139f0"] ;
17 -> 19 ;
20 [label=<Temperature &le; 22.671<br/>gini = 0.165<br/>samples = 187<br/>value = [17, 170]<br/>class = occupied>, fillcolor="#399de5e6"] ;
16 -> 20 ;
21 [label=<gini = 0.012<br/>samples = 164<br/>value = [1, 163]<br/>class = occupied>, fillcolor="#399de5fd"] ;
20 -> 21 ;
22 [label=<gini = 0.423<br/>samples = 23<br/>value = [16, 7]<br/>class = not occupied>, fillcolor="#e581398f"] ;
20 -> 22 ;
}